#pragma once
#include <cstdarg>
namespace Eloquent {
    namespace ML {
        namespace Port {
            class RandomForest {
                public:
                    /**
                    * Predict class for features vector
                    */
                    int predict(float *x) {
                        uint8_t votes[4] = { 0 };
                        // tree #1
                        if (x[0] <= 29.449999809265137) {
                            if (x[4] <= 1.225000023841858) {
                                if (x[4] <= 1.1850000023841858) {
                                    if (x[3] <= 29.300000190734863) {
                                        if (x[1] <= 83.30000305175781) {
                                            if (x[1] <= 80.45000076293945) {
                                                if (x[4] <= 1.1349999904632568) {
                                                    votes[3] += 1;
                                                }

                                                else {
                                                    votes[3] += 1;
                                                }
                                            }

                                            else {
                                                if (x[2] <= 48.95000076293945) {
                                                    votes[3] += 1;
                                                }

                                                else {
                                                    votes[2] += 1;
                                                }
                                            }
                                        }

                                        else {
                                            votes[2] += 1;
                                        }
                                    }

                                    else {
                                        if (x[4] <= 1.0850000381469727) {
                                            if (x[0] <= 27.40000057220459) {
                                                votes[2] += 1;
                                            }

                                            else {
                                                votes[3] += 1;
                                            }
                                        }

                                        else {
                                            votes[2] += 1;
                                        }
                                    }
                                }

                                else {
                                    if (x[3] <= 23.5) {
                                        if (x[2] <= 42.500000953674316) {
                                            votes[3] += 1;
                                        }

                                        else {
                                            votes[2] += 1;
                                        }
                                    }

                                    else {
                                        if (x[0] <= 22.75) {
                                            votes[3] += 1;
                                        }

                                        else {
                                            if (x[1] <= 71.6500015258789) {
                                                if (x[2] <= 2.7999998927116394) {
                                                    votes[2] += 1;
                                                }

                                                else {
                                                    votes[3] += 1;
                                                }
                                            }

                                            else {
                                                votes[2] += 1;
                                            }
                                        }
                                    }
                                }
                            }

                            else {
                                if (x[4] <= 1.8250000476837158) {
                                    if (x[3] <= 34.35000038146973) {
                                        if (x[4] <= 1.2649999856948853) {
                                            if (x[2] <= 16.09999942779541) {
                                                if (x[3] <= 29.649999618530273) {
                                                    votes[3] += 1;
                                                }

                                                else {
                                                    votes[2] += 1;
                                                }
                                            }

                                            else {
                                                votes[2] += 1;
                                            }
                                        }

                                        else {
                                            if (x[1] <= 94.1500015258789) {
                                                if (x[3] <= 13.550000190734863) {
                                                    votes[3] += 1;
                                                }

                                                else {
                                                    votes[2] += 1;
                                                }
                                            }

                                            else {
                                                if (x[0] <= 25.0) {
                                                    votes[1] += 1;
                                                }

                                                else {
                                                    votes[2] += 1;
                                                }
                                            }
                                        }
                                    }

                                    else {
                                        if (x[1] <= 81.8499984741211) {
                                            if (x[2] <= 42.099998474121094) {
                                                if (x[1] <= 61.35000038146973) {
                                                    votes[1] += 1;
                                                }

                                                else {
                                                    votes[2] += 1;
                                                }
                                            }

                                            else {
                                                if (x[3] <= 43.05000114440918) {
                                                    votes[1] += 1;
                                                }

                                                else {
                                                    votes[0] += 1;
                                                }
                                            }
                                        }

                                        else {
                                            if (x[1] <= 83.10000228881836) {
                                                votes[1] += 1;
                                            }

                                            else {
                                                if (x[2] <= 34.45000076293945) {
                                                    votes[2] += 1;
                                                }

                                                else {
                                                    votes[1] += 1;
                                                }
                                            }
                                        }
                                    }
                                }

                                else {
                                    if (x[4] <= 2.5800000429153442) {
                                        if (x[4] <= 1.9850000143051147) {
                                            if (x[1] <= 59.35000038146973) {
                                                votes[2] += 1;
                                            }

                                            else {
                                                if (x[4] <= 1.875) {
                                                    votes[1] += 1;
                                                }

                                                else {
                                                    votes[2] += 1;
                                                }
                                            }
                                        }

                                        else {
                                            if (x[3] <= 50.599998474121094) {
                                                if (x[0] <= 29.34999942779541) {
                                                    votes[1] += 1;
                                                }

                                                else {
                                                    votes[0] += 1;
                                                }
                                            }

                                            else {
                                                votes[0] += 1;
                                            }
                                        }
                                    }

                                    else {
                                        votes[0] += 1;
                                    }
                                }
                            }
                        }

                        else {
                            if (x[4] <= 1.774999976158142) {
                                if (x[4] <= 1.1449999809265137) {
                                    if (x[4] <= 0.9850000143051147) {
                                        if (x[0] <= 34.79999923706055) {
                                            if (x[3] <= 28.699999809265137) {
                                                votes[3] += 1;
                                            }

                                            else {
                                                if (x[4] <= 0.9300000071525574) {
                                                    votes[2] += 1;
                                                }

                                                else {
                                                    votes[3] += 1;
                                                }
                                            }
                                        }

                                        else {
                                            if (x[1] <= 72.20000076293945) {
                                                votes[3] += 1;
                                            }

                                            else {
                                                votes[2] += 1;
                                            }
                                        }
                                    }

                                    else {
                                        if (x[1] <= 73.75) {
                                            if (x[3] <= 23.449999809265137) {
                                                if (x[2] <= 25.699999809265137) {
                                                    votes[3] += 1;
                                                }

                                                else {
                                                    votes[2] += 1;
                                                }
                                            }

                                            else {
                                                if (x[1] <= 55.0) {
                                                    votes[3] += 1;
                                                }

                                                else {
                                                    votes[2] += 1;
                                                }
                                            }
                                        }

                                        else {
                                            if (x[0] <= 48.0) {
                                                if (x[2] <= 2.350000023841858) {
                                                    votes[3] += 1;
                                                }

                                                else {
                                                    votes[2] += 1;
                                                }
                                            }

                                            else {
                                                votes[0] += 1;
                                            }
                                        }
                                    }
                                }

                                else {
                                    if (x[4] <= 1.6950000524520874) {
                                        if (x[3] <= 37.45000076293945) {
                                            if (x[3] <= 34.80000114440918) {
                                                if (x[4] <= 1.1850000023841858) {
                                                    votes[2] += 1;
                                                }

                                                else {
                                                    votes[2] += 1;
                                                }
                                            }

                                            else {
                                                if (x[0] <= 34.75) {
                                                    votes[2] += 1;
                                                }

                                                else {
                                                    votes[1] += 1;
                                                }
                                            }
                                        }

                                        else {
                                            if (x[1] <= 62.30000114440918) {
                                                if (x[2] <= 8.349999904632568) {
                                                    votes[2] += 1;
                                                }

                                                else {
                                                    votes[1] += 1;
                                                }
                                            }

                                            else {
                                                if (x[4] <= 1.3849999904632568) {
                                                    votes[1] += 1;
                                                }

                                                else {
                                                    votes[1] += 1;
                                                }
                                            }
                                        }
                                    }

                                    else {
                                        if (x[0] <= 34.89999961853027) {
                                            if (x[0] <= 32.0) {
                                                if (x[2] <= 3.4499999284744263) {
                                                    votes[2] += 1;
                                                }

                                                else {
                                                    votes[2] += 1;
                                                }
                                            }

                                            else {
                                                if (x[1] <= 74.9000015258789) {
                                                    votes[2] += 1;
                                                }

                                                else {
                                                    votes[1] += 1;
                                                }
                                            }
                                        }

                                        else {
                                            if (x[2] <= 6.299999952316284) {
                                                if (x[3] <= 29.800000190734863) {
                                                    votes[2] += 1;
                                                }

                                                else {
                                                    votes[1] += 1;
                                                }
                                            }

                                            else {
                                                if (x[0] <= 35.45000076293945) {
                                                    votes[1] += 1;
                                                }

                                                else {
                                                    votes[1] += 1;
                                                }
                                            }
                                        }
                                    }
                                }
                            }

                            else {
                                if (x[3] <= 37.54999923706055) {
                                    if (x[4] <= 2.4250000715255737) {
                                        if (x[4] <= 1.8450000286102295) {
                                            if (x[3] <= 25.399999618530273) {
                                                votes[2] += 1;
                                            }

                                            else {
                                                if (x[0] <= 35.20000076293945) {
                                                    votes[1] += 1;
                                                }

                                                else {
                                                    votes[1] += 1;
                                                }
                                            }
                                        }

                                        else {
                                            if (x[3] <= 32.54999923706055) {
                                                if (x[0] <= 49.60000038146973) {
                                                    votes[1] += 1;
                                                }

                                                else {
                                                    votes[0] += 1;
                                                }
                                            }

                                            else {
                                                if (x[0] <= 45.94999885559082) {
                                                    votes[1] += 1;
                                                }

                                                else {
                                                    votes[0] += 1;
                                                }
                                            }
                                        }
                                    }

                                    else {
                                        if (x[0] <= 40.75) {
                                            if (x[1] <= 99.29999923706055) {
                                                if (x[2] <= 24.149999618530273) {
                                                    votes[1] += 1;
                                                }

                                                else {
                                                    votes[0] += 1;
                                                }
                                            }

                                            else {
                                                if (x[4] <= 2.7050000429153442) {
                                                    votes[0] += 1;
                                                }

                                                else {
                                                    votes[0] += 1;
                                                }
                                            }
                                        }

                                        else {
                                            if (x[1] <= 65.79999923706055) {
                                                if (x[1] <= 59.75) {
                                                    votes[0] += 1;
                                                }

                                                else {
                                                    votes[1] += 1;
                                                }
                                            }

                                            else {
                                                if (x[3] <= 35.39999961853027) {
                                                    votes[0] += 1;
                                                }

                                                else {
                                                    votes[0] += 1;
                                                }
                                            }
                                        }
                                    }
                                }

                                else {
                                    if (x[0] <= 39.95000076293945) {
                                        if (x[2] <= 5.049999952316284) {
                                            if (x[2] <= 0.600000012665987) {
                                                votes[1] += 1;
                                            }

                                            else {
                                                if (x[3] <= 42.44999885559082) {
                                                    votes[0] += 1;
                                                }

                                                else {
                                                    votes[0] += 1;
                                                }
                                            }
                                        }

                                        else {
                                            if (x[4] <= 2.40500009059906) {
                                                if (x[1] <= 103.29999923706055) {
                                                    votes[1] += 1;
                                                }

                                                else {
                                                    votes[0] += 1;
                                                }
                                            }

                                            else {
                                                if (x[4] <= 2.6450001001358032) {
                                                    votes[0] += 1;
                                                }

                                                else {
                                                    votes[0] += 1;
                                                }
                                            }
                                        }
                                    }

                                    else {
                                        if (x[0] <= 43.54999923706055) {
                                            if (x[4] <= 2.284999966621399) {
                                                if (x[1] <= 92.39999771118164) {
                                                    votes[1] += 1;
                                                }

                                                else {
                                                    votes[0] += 1;
                                                }
                                            }

                                            else {
                                                votes[0] += 1;
                                            }
                                        }

                                        else {
                                            if (x[4] <= 1.9300000071525574) {
                                                if (x[4] <= 1.8199999928474426) {
                                                    votes[0] += 1;
                                                }

                                                else {
                                                    votes[1] += 1;
                                                }
                                            }

                                            else {
                                                if (x[1] <= 64.25000190734863) {
                                                    votes[0] += 1;
                                                }

                                                else {
                                                    votes[0] += 1;
                                                }
                                            }
                                        }
                                    }
                                }
                            }
                        }

                        // tree #2
                        if (x[3] <= 27.15000057220459) {
                            if (x[0] <= 29.84999942779541) {
                                if (x[4] <= 1.2649999856948853) {
                                    if (x[2] <= 58.45000076293945) {
                                        if (x[4] <= 1.1850000023841858) {
                                            if (x[0] <= 26.84999942779541) {
                                                votes[3] += 1;
                                            }

                                            else {
                                                if (x[3] <= 24.949999809265137) {
                                                    votes[3] += 1;
                                                }

                                                else {
                                                    votes[3] += 1;
                                                }
                                            }
                                        }

                                        else {
                                            if (x[1] <= 79.95000076293945) {
                                                if (x[2] <= 17.850000381469727) {
                                                    votes[3] += 1;
                                                }

                                                else {
                                                    votes[2] += 1;
                                                }
                                            }

                                            else {
                                                votes[2] += 1;
                                            }
                                        }
                                    }

                                    else {
                                        if (x[3] <= 17.800000190734863) {
                                            votes[3] += 1;
                                        }

                                        else {
                                            votes[2] += 1;
                                        }
                                    }
                                }

                                else {
                                    if (x[1] <= 98.25) {
                                        if (x[4] <= 1.9199999570846558) {
                                            if (x[3] <= 24.15000057220459) {
                                                if (x[4] <= 1.274999976158142) {
                                                    votes[2] += 1;
                                                }

                                                else {
                                                    votes[2] += 1;
                                                }
                                            }

                                            else {
                                                if (x[4] <= 1.8449999690055847) {
                                                    votes[2] += 1;
                                                }

                                                else {
                                                    votes[1] += 1;
                                                }
                                            }
                                        }

                                        else {
                                            if (x[0] <= 28.5) {
                                                if (x[1] <= 76.95000076293945) {
                                                    votes[1] += 1;
                                                }

                                                else {
                                                    votes[1] += 1;
                                                }
                                            }

                                            else {
                                                if (x[3] <= 22.65000057220459) {
                                                    votes[2] += 1;
                                                }

                                                else {
                                                    votes[1] += 1;
                                                }
                                            }
                                        }
                                    }

                                    else {
                                        votes[1] += 1;
                                    }
                                }
                            }

                            else {
                                if (x[3] <= 15.950000286102295) {
                                    if (x[0] <= 33.70000076293945) {
                                        if (x[2] <= 23.75) {
                                            if (x[4] <= 1.4149999618530273) {
                                                votes[3] += 1;
                                            }

                                            else {
                                                votes[2] += 1;
                                            }
                                        }

                                        else {
                                            if (x[4] <= 1.1600000262260437) {
                                                votes[3] += 1;
                                            }

                                            else {
                                                votes[2] += 1;
                                            }
                                        }
                                    }

                                    else {
                                        if (x[4] <= 1.5600000023841858) {
                                            votes[2] += 1;
                                        }

                                        else {
                                            votes[1] += 1;
                                        }
                                    }
                                }

                                else {
                                    if (x[4] <= 1.8350000381469727) {
                                        if (x[0] <= 31.15000057220459) {
                                            if (x[2] <= 3.950000047683716) {
                                                if (x[1] <= 65.20000076293945) {
                                                    votes[3] += 1;
                                                }

                                                else {
                                                    votes[2] += 1;
                                                }
                                            }

                                            else {
                                                if (x[4] <= 1.215000033378601) {
                                                    votes[3] += 1;
                                                }

                                                else {
                                                    votes[2] += 1;
                                                }
                                            }
                                        }

                                        else {
                                            if (x[4] <= 1.090000033378601) {
                                                if (x[0] <= 36.45000076293945) {
                                                    votes[3] += 1;
                                                }

                                                else {
                                                    votes[2] += 1;
                                                }
                                            }

                                            else {
                                                if (x[4] <= 1.6349999904632568) {
                                                    votes[2] += 1;
                                                }

                                                else {
                                                    votes[2] += 1;
                                                }
                                            }
                                        }
                                    }

                                    else {
                                        if (x[3] <= 26.300000190734863) {
                                            if (x[4] <= 1.8849999904632568) {
                                                if (x[3] <= 25.34999942779541) {
                                                    votes[2] += 1;
                                                }

                                                else {
                                                    votes[1] += 1;
                                                }
                                            }

                                            else {
                                                if (x[4] <= 2.7450000047683716) {
                                                    votes[1] += 1;
                                                }

                                                else {
                                                    votes[0] += 1;
                                                }
                                            }
                                        }

                                        else {
                                            if (x[1] <= 94.45000076293945) {
                                                if (x[0] <= 37.70000076293945) {
                                                    votes[0] += 1;
                                                }

                                                else {
                                                    votes[1] += 1;
                                                }
                                            }

                                            else {
                                                votes[1] += 1;
                                            }
                                        }
                                    }
                                }
                            }
                        }

                        else {
                            if (x[3] <= 37.45000076293945) {
                                if (x[3] <= 31.550000190734863) {
                                    if (x[0] <= 35.5) {
                                        if (x[2] <= 50.14999961853027) {
                                            if (x[4] <= 1.7649999856948853) {
                                                if (x[3] <= 28.550000190734863) {
                                                    votes[2] += 1;
                                                }

                                                else {
                                                    votes[2] += 1;
                                                }
                                            }

                                            else {
                                                if (x[4] <= 2.590000033378601) {
                                                    votes[1] += 1;
                                                }

                                                else {
                                                    votes[0] += 1;
                                                }
                                            }
                                        }

                                        else {
                                            if (x[0] <= 34.70000076293945) {
                                                if (x[0] <= 31.600000381469727) {
                                                    votes[2] += 1;
                                                }

                                                else {
                                                    votes[1] += 1;
                                                }
                                            }

                                            else {
                                                votes[2] += 1;
                                            }
                                        }
                                    }

                                    else {
                                        if (x[2] <= 33.85000038146973) {
                                            if (x[4] <= 1.625) {
                                                if (x[0] <= 36.69999885559082) {
                                                    votes[2] += 1;
                                                }

                                                else {
                                                    votes[2] += 1;
                                                }
                                            }

                                            else {
                                                if (x[1] <= 112.45000076293945) {
                                                    votes[1] += 1;
                                                }

                                                else {
                                                    votes[0] += 1;
                                                }
                                            }
                                        }

                                        else {
                                            if (x[3] <= 30.050000190734863) {
                                                if (x[0] <= 40.75) {
                                                    votes[1] += 1;
                                                }

                                                else {
                                                    votes[0] += 1;
                                                }
                                            }

                                            else {
                                                if (x[2] <= 41.70000076293945) {
                                                    votes[1] += 1;
                                                }

                                                else {
                                                    votes[0] += 1;
                                                }
                                            }
                                        }
                                    }
                                }

                                else {
                                    if (x[4] <= 1.6850000023841858) {
                                        if (x[0] <= 38.05000114440918) {
                                            if (x[0] <= 31.5) {
                                                if (x[4] <= 1.4900000095367432) {
                                                    votes[2] += 1;
                                                }

                                                else {
                                                    votes[2] += 1;
                                                }
                                            }

                                            else {
                                                if (x[4] <= 1.534999966621399) {
                                                    votes[2] += 1;
                                                }

                                                else {
                                                    votes[1] += 1;
                                                }
                                            }
                                        }

                                        else {
                                            if (x[4] <= 1.4350000023841858) {
                                                if (x[1] <= 77.05000114440918) {
                                                    votes[2] += 1;
                                                }

                                                else {
                                                    votes[0] += 1;
                                                }
                                            }

                                            else {
                                                votes[1] += 1;
                                            }
                                        }
                                    }

                                    else {
                                        if (x[4] <= 2.4700000286102295) {
                                            if (x[4] <= 1.8049999475479126) {
                                                if (x[2] <= 1.949999988079071) {
                                                    votes[2] += 1;
                                                }

                                                else {
                                                    votes[1] += 1;
                                                }
                                            }

                                            else {
                                                if (x[4] <= 2.3950001001358032) {
                                                    votes[1] += 1;
                                                }

                                                else {
                                                    votes[1] += 1;
                                                }
                                            }
                                        }

                                        else {
                                            if (x[2] <= 9.549999713897705) {
                                                if (x[1] <= 76.04999923706055) {
                                                    votes[0] += 1;
                                                }

                                                else {
                                                    votes[1] += 1;
                                                }
                                            }

                                            else {
                                                if (x[1] <= 64.29999923706055) {
                                                    votes[1] += 1;
                                                }

                                                else {
                                                    votes[0] += 1;
                                                }
                                            }
                                        }
                                    }
                                }
                            }

                            else {
                                if (x[1] <= 100.45000076293945) {
                                    if (x[1] <= 69.85000228881836) {
                                        if (x[4] <= 2.2649999856948853) {
                                            if (x[0] <= 45.05000114440918) {
                                                if (x[2] <= 5.049999952316284) {
                                                    votes[1] += 1;
                                                }

                                                else {
                                                    votes[1] += 1;
                                                }
                                            }

                                            else {
                                                votes[0] += 1;
                                            }
                                        }

                                        else {
                                            if (x[1] <= 58.64999961853027) {
                                                votes[1] += 1;
                                            }

                                            else {
                                                if (x[2] <= 107.64999771118164) {
                                                    votes[0] += 1;
                                                }

                                                else {
                                                    votes[1] += 1;
                                                }
                                            }
                                        }
                                    }

                                    else {
                                        if (x[2] <= 27.899999618530273) {
                                            if (x[2] <= 14.650000095367432) {
                                                if (x[2] <= 2.049999952316284) {
                                                    votes[1] += 1;
                                                }

                                                else {
                                                    votes[0] += 1;
                                                }
                                            }

                                            else {
                                                if (x[4] <= 2.334999918937683) {
                                                    votes[1] += 1;
                                                }

                                                else {
                                                    votes[0] += 1;
                                                }
                                            }
                                        }

                                        else {
                                            if (x[4] <= 2.0149999856948853) {
                                                if (x[0] <= 31.300000190734863) {
                                                    votes[1] += 1;
                                                }

                                                else {
                                                    votes[1] += 1;
                                                }
                                            }

                                            else {
                                                if (x[0] <= 41.25) {
                                                    votes[0] += 1;
                                                }

                                                else {
                                                    votes[0] += 1;
                                                }
                                            }
                                        }
                                    }
                                }

                                else {
                                    if (x[2] <= 0.7500000149011612) {
                                        votes[1] += 1;
                                    }

                                    else {
                                        if (x[2] <= 12.549999713897705) {
                                            if (x[2] <= 10.949999809265137) {
                                                votes[0] += 1;
                                            }

                                            else {
                                                if (x[4] <= 2.6249999403953552) {
                                                    votes[1] += 1;
                                                }

                                                else {
                                                    votes[0] += 1;
                                                }
                                            }
                                        }

                                        else {
                                            votes[0] += 1;
                                        }
                                    }
                                }
                            }
                        }

                        // tree #3
                        if (x[0] <= 29.34999942779541) {
                            if (x[4] <= 1.2549999952316284) {
                                if (x[2] <= 43.44999885559082) {
                                    if (x[0] <= 26.84999942779541) {
                                        if (x[4] <= 1.1850000023841858) {
                                            if (x[1] <= 87.69999694824219) {
                                                if (x[1] <= 62.25) {
                                                    votes[3] += 1;
                                                }

                                                else {
                                                    votes[3] += 1;
                                                }
                                            }

                                            else {
                                                votes[2] += 1;
                                            }
                                        }

                                        else {
                                            if (x[4] <= 1.2350000143051147) {
                                                if (x[0] <= 26.050000190734863) {
                                                    votes[3] += 1;
                                                }

                                                else {
                                                    votes[2] += 1;
                                                }
                                            }

                                            else {
                                                votes[3] += 1;
                                            }
                                        }
                                    }

                                    else {
                                        if (x[3] <= 29.09999942779541) {
                                            if (x[4] <= 1.225000023841858) {
                                                if (x[4] <= 1.1800000071525574) {
                                                    votes[3] += 1;
                                                }

                                                else {
                                                    votes[3] += 1;
                                                }
                                            }

                                            else {
                                                if (x[2] <= 13.350000143051147) {
                                                    votes[3] += 1;
                                                }

                                                else {
                                                    votes[2] += 1;
                                                }
                                            }
                                        }

                                        else {
                                            if (x[2] <= 1.649999976158142) {
                                                votes[3] += 1;
                                            }

                                            else {
                                                votes[2] += 1;
                                            }
                                        }
                                    }
                                }

                                else {
                                    if (x[4] <= 1.0600000023841858) {
                                        votes[3] += 1;
                                    }

                                    else {
                                        if (x[1] <= 69.20000076293945) {
                                            if (x[2] <= 74.25) {
                                                votes[3] += 1;
                                            }

                                            else {
                                                votes[2] += 1;
                                            }
                                        }

                                        else {
                                            votes[2] += 1;
                                        }
                                    }
                                }
                            }

                            else {
                                if (x[4] <= 1.8250000476837158) {
                                    if (x[1] <= 94.1500015258789) {
                                        if (x[1] <= 89.0) {
                                            if (x[3] <= 13.550000190734863) {
                                                votes[3] += 1;
                                            }

                                            else {
                                                if (x[0] <= 28.050000190734863) {
                                                    votes[2] += 1;
                                                }

                                                else {
                                                    votes[2] += 1;
                                                }
                                            }
                                        }

                                        else {
                                            if (x[4] <= 1.534999966621399) {
                                                votes[2] += 1;
                                            }

                                            else {
                                                if (x[3] <= 27.549999237060547) {
                                                    votes[2] += 1;
                                                }

                                                else {
                                                    votes[1] += 1;
                                                }
                                            }
                                        }
                                    }

                                    else {
                                        votes[1] += 1;
                                    }
                                }

                                else {
                                    if (x[1] <= 101.8499984741211) {
                                        if (x[3] <= 29.600000381469727) {
                                            if (x[1] <= 82.29999923706055) {
                                                if (x[3] <= 22.550000190734863) {
                                                    votes[2] += 1;
                                                }

                                                else {
                                                    votes[2] += 1;
                                                }
                                            }

                                            else {
                                                if (x[3] <= 27.699999809265137) {
                                                    votes[1] += 1;
                                                }

                                                else {
                                                    votes[2] += 1;
                                                }
                                            }
                                        }

                                        else {
                                            if (x[2] <= 0.6499999910593033) {
                                                votes[0] += 1;
                                            }

                                            else {
                                                if (x[1] <= 77.75) {
                                                    votes[1] += 1;
                                                }

                                                else {
                                                    votes[1] += 1;
                                                }
                                            }
                                        }
                                    }

                                    else {
                                        votes[0] += 1;
                                    }
                                }
                            }
                        }

                        else {
                            if (x[3] <= 33.14999961853027) {
                                if (x[4] <= 1.8049999475479126) {
                                    if (x[3] <= 17.15000057220459) {
                                        if (x[1] <= 79.3499984741211) {
                                            if (x[4] <= 1.2300000190734863) {
                                                votes[3] += 1;
                                            }

                                            else {
                                                if (x[1] <= 48.5) {
                                                    votes[2] += 1;
                                                }

                                                else {
                                                    votes[2] += 1;
                                                }
                                            }
                                        }

                                        else {
                                            votes[2] += 1;
                                        }
                                    }

                                    else {
                                        if (x[3] <= 22.15000057220459) {
                                            if (x[2] <= 15.349999904632568) {
                                                if (x[1] <= 77.5) {
                                                    votes[3] += 1;
                                                }

                                                else {
                                                    votes[2] += 1;
                                                }
                                            }

                                            else {
                                                if (x[1] <= 46.5) {
                                                    votes[3] += 1;
                                                }

                                                else {
                                                    votes[2] += 1;
                                                }
                                            }
                                        }

                                        else {
                                            if (x[1] <= 93.3499984741211) {
                                                if (x[4] <= 1.125) {
                                                    votes[3] += 1;
                                                }

                                                else {
                                                    votes[2] += 1;
                                                }
                                            }

                                            else {
                                                if (x[3] <= 29.199999809265137) {
                                                    votes[0] += 1;
                                                }

                                                else {
                                                    votes[1] += 1;
                                                }
                                            }
                                        }
                                    }
                                }

                                else {
                                    if (x[0] <= 44.04999923706055) {
                                        if (x[1] <= 106.04999923706055) {
                                            if (x[4] <= 2.690000057220459) {
                                                if (x[0] <= 35.04999923706055) {
                                                    votes[1] += 1;
                                                }

                                                else {
                                                    votes[1] += 1;
                                                }
                                            }

                                            else {
                                                if (x[2] <= 18.40000057220459) {
                                                    votes[1] += 1;
                                                }

                                                else {
                                                    votes[0] += 1;
                                                }
                                            }
                                        }

                                        else {
                                            if (x[0] <= 38.19999885559082) {
                                                if (x[1] <= 107.5) {
                                                    votes[0] += 1;
                                                }

                                                else {
                                                    votes[1] += 1;
                                                }
                                            }

                                            else {
                                                if (x[3] <= 32.54999923706055) {
                                                    votes[0] += 1;
                                                }

                                                else {
                                                    votes[1] += 1;
                                                }
                                            }
                                        }
                                    }

                                    else {
                                        if (x[4] <= 1.9350000023841858) {
                                            votes[1] += 1;
                                        }

                                        else {
                                            votes[0] += 1;
                                        }
                                    }
                                }
                            }

                            else {
                                if (x[4] <= 2.284999966621399) {
                                    if (x[3] <= 41.75) {
                                        if (x[4] <= 1.5149999856948853) {
                                            if (x[2] <= 39.5) {
                                                if (x[1] <= 83.95000076293945) {
                                                    votes[2] += 1;
                                                }

                                                else {
                                                    votes[2] += 1;
                                                }
                                            }

                                            else {
                                                if (x[4] <= 1.2049999833106995) {
                                                    votes[0] += 1;
                                                }

                                                else {
                                                    votes[1] += 1;
                                                }
                                            }
                                        }

                                        else {
                                            if (x[4] <= 1.725000023841858) {
                                                if (x[2] <= 8.5) {
                                                    votes[2] += 1;
                                                }

                                                else {
                                                    votes[1] += 1;
                                                }
                                            }

                                            else {
                                                if (x[4] <= 1.9399999976158142) {
                                                    votes[1] += 1;
                                                }

                                                else {
                                                    votes[1] += 1;
                                                }
                                            }
                                        }
                                    }

                                    else {
                                        if (x[4] <= 1.9800000190734863) {
                                            if (x[3] <= 48.20000076293945) {
                                                if (x[0] <= 41.150001525878906) {
                                                    votes[1] += 1;
                                                }

                                                else {
                                                    votes[0] += 1;
                                                }
                                            }

                                            else {
                                                if (x[0] <= 37.10000038146973) {
                                                    votes[0] += 1;
                                                }

                                                else {
                                                    votes[1] += 1;
                                                }
                                            }
                                        }

                                        else {
                                            if (x[1] <= 61.89999961853027) {
                                                if (x[2] <= 20.100000381469727) {
                                                    votes[0] += 1;
                                                }

                                                else {
                                                    votes[1] += 1;
                                                }
                                            }

                                            else {
                                                if (x[0] <= 34.19999885559082) {
                                                    votes[1] += 1;
                                                }

                                                else {
                                                    votes[0] += 1;
                                                }
                                            }
                                        }
                                    }
                                }

                                else {
                                    if (x[3] <= 38.0) {
                                        if (x[4] <= 2.569999933242798) {
                                            if (x[3] <= 33.54999923706055) {
                                                votes[0] += 1;
                                            }

                                            else {
                                                if (x[0] <= 46.20000076293945) {
                                                    votes[1] += 1;
                                                }

                                                else {
                                                    votes[0] += 1;
                                                }
                                            }
                                        }

                                        else {
                                            votes[0] += 1;
                                        }
                                    }

                                    else {
                                        if (x[1] <= 59.10000038146973) {
                                            votes[1] += 1;
                                        }

                                        else {
                                            if (x[4] <= 2.3249999284744263) {
                                                if (x[1] <= 74.5999984741211) {
                                                    votes[0] += 1;
                                                }

                                                else {
                                                    votes[1] += 1;
                                                }
                                            }

                                            else {
                                                if (x[3] <= 38.14999961853027) {
                                                    votes[1] += 1;
                                                }

                                                else {
                                                    votes[0] += 1;
                                                }
                                            }
                                        }
                                    }
                                }
                            }
                        }

                        // tree #4
                        if (x[0] <= 29.050000190734863) {
                            if (x[1] <= 80.64999771118164) {
                                if (x[3] <= 28.399999618530273) {
                                    if (x[2] <= 40.5) {
                                        if (x[3] <= 17.15000057220459) {
                                            if (x[4] <= 1.3449999690055847) {
                                                if (x[0] <= 28.65000057220459) {
                                                    votes[3] += 1;
                                                }

                                                else {
                                                    votes[3] += 1;
                                                }
                                            }

                                            else {
                                                votes[2] += 1;
                                            }
                                        }

                                        else {
                                            if (x[0] <= 26.550000190734863) {
                                                if (x[4] <= 1.274999976158142) {
                                                    votes[3] += 1;
                                                }

                                                else {
                                                    votes[2] += 1;
                                                }
                                            }

                                            else {
                                                if (x[4] <= 1.225000023841858) {
                                                    votes[3] += 1;
                                                }

                                                else {
                                                    votes[2] += 1;
                                                }
                                            }
                                        }
                                    }

                                    else {
                                        if (x[4] <= 1.159999966621399) {
                                            if (x[3] <= 24.050000190734863) {
                                                votes[3] += 1;
                                            }

                                            else {
                                                if (x[1] <= 58.10000038146973) {
                                                    votes[2] += 1;
                                                }

                                                else {
                                                    votes[3] += 1;
                                                }
                                            }
                                        }

                                        else {
                                            if (x[3] <= 26.449999809265137) {
                                                votes[2] += 1;
                                            }

                                            else {
                                                if (x[0] <= 25.65000057220459) {
                                                    votes[2] += 1;
                                                }

                                                else {
                                                    votes[1] += 1;
                                                }
                                            }
                                        }
                                    }
                                }

                                else {
                                    if (x[3] <= 39.54999923706055) {
                                        if (x[4] <= 1.8450000286102295) {
                                            if (x[1] <= 79.29999923706055) {
                                                if (x[3] <= 29.899999618530273) {
                                                    votes[2] += 1;
                                                }

                                                else {
                                                    votes[2] += 1;
                                                }
                                            }

                                            else {
                                                votes[1] += 1;
                                            }
                                        }

                                        else {
                                            if (x[0] <= 28.899999618530273) {
                                                if (x[4] <= 2.3550000190734863) {
                                                    votes[1] += 1;
                                                }

                                                else {
                                                    votes[0] += 1;
                                                }
                                            }

                                            else {
                                                votes[0] += 1;
                                            }
                                        }
                                    }

                                    else {
                                        if (x[1] <= 77.75) {
                                            votes[1] += 1;
                                        }

                                        else {
                                            votes[0] += 1;
                                        }
                                    }
                                }
                            }

                            else {
                                if (x[2] <= 90.80000305175781) {
                                    if (x[4] <= 1.7949999570846558) {
                                        if (x[1] <= 97.5) {
                                            if (x[4] <= 0.9350000023841858) {
                                                votes[3] += 1;
                                            }

                                            else {
                                                if (x[0] <= 22.84999942779541) {
                                                    votes[2] += 1;
                                                }

                                                else {
                                                    votes[2] += 1;
                                                }
                                            }
                                        }

                                        else {
                                            votes[1] += 1;
                                        }
                                    }

                                    else {
                                        if (x[3] <= 24.550000190734863) {
                                            if (x[4] <= 1.9150000214576721) {
                                                votes[2] += 1;
                                            }

                                            else {
                                                votes[1] += 1;
                                            }
                                        }

                                        else {
                                            if (x[0] <= 22.949999809265137) {
                                                if (x[4] <= 2.5149999856948853) {
                                                    votes[2] += 1;
                                                }

                                                else {
                                                    votes[0] += 1;
                                                }
                                            }

                                            else {
                                                if (x[4] <= 2.884999990463257) {
                                                    votes[1] += 1;
                                                }

                                                else {
                                                    votes[0] += 1;
                                                }
                                            }
                                        }
                                    }
                                }

                                else {
                                    if (x[0] <= 26.449999809265137) {
                                        if (x[4] <= 1.5649999976158142) {
                                            votes[2] += 1;
                                        }

                                        else {
                                            votes[1] += 1;
                                        }
                                    }

                                    else {
                                        votes[1] += 1;
                                    }
                                }
                            }
                        }

                        else {
                            if (x[1] <= 89.5999984741211) {
                                if (x[4] <= 1.784999966621399) {
                                    if (x[4] <= 1.1449999809265137) {
                                        if (x[0] <= 34.25) {
                                            if (x[2] <= 0.05000000074505806) {
                                                votes[2] += 1;
                                            }

                                            else {
                                                if (x[3] <= 29.350000381469727) {
                                                    votes[3] += 1;
                                                }

                                                else {
                                                    votes[2] += 1;
                                                }
                                            }
                                        }

                                        else {
                                            if (x[2] <= 12.650000095367432) {
                                                if (x[3] <= 21.0) {
                                                    votes[3] += 1;
                                                }

                                                else {
                                                    votes[2] += 1;
                                                }
                                            }

                                            else {
                                                votes[2] += 1;
                                            }
                                        }
                                    }

                                    else {
                                        if (x[2] <= 52.25) {
                                            if (x[0] <= 38.69999885559082) {
                                                if (x[3] <= 37.45000076293945) {
                                                    votes[2] += 1;
                                                }

                                                else {
                                                    votes[1] += 1;
                                                }
                                            }

                                            else {
                                                if (x[3] <= 24.100000381469727) {
                                                    votes[2] += 1;
                                                }

                                                else {
                                                    votes[1] += 1;
                                                }
                                            }
                                        }

                                        else {
                                            if (x[4] <= 1.4950000047683716) {
                                                if (x[0] <= 39.29999923706055) {
                                                    votes[2] += 1;
                                                }

                                                else {
                                                    votes[1] += 1;
                                                }
                                            }

                                            else {
                                                if (x[0] <= 33.0) {
                                                    votes[2] += 1;
                                                }

                                                else {
                                                    votes[1] += 1;
                                                }
                                            }
                                        }
                                    }
                                }

                                else {
                                    if (x[4] <= 2.3950001001358032) {
                                        if (x[3] <= 44.70000076293945) {
                                            if (x[0] <= 31.699999809265137) {
                                                if (x[4] <= 1.8849999904632568) {
                                                    votes[2] += 1;
                                                }

                                                else {
                                                    votes[1] += 1;
                                                }
                                            }

                                            else {
                                                if (x[3] <= 42.10000038146973) {
                                                    votes[1] += 1;
                                                }

                                                else {
                                                    votes[1] += 1;
                                                }
                                            }
                                        }

                                        else {
                                            if (x[4] <= 1.9149999618530273) {
                                                if (x[1] <= 78.19999694824219) {
                                                    votes[1] += 1;
                                                }

                                                else {
                                                    votes[0] += 1;
                                                }
                                            }

                                            else {
                                                if (x[2] <= 129.8499984741211) {
                                                    votes[0] += 1;
                                                }

                                                else {
                                                    votes[1] += 1;
                                                }
                                            }
                                        }
                                    }

                                    else {
                                        if (x[3] <= 38.70000076293945) {
                                            if (x[2] <= 22.149999618530273) {
                                                if (x[0] <= 42.10000038146973) {
                                                    votes[1] += 1;
                                                }

                                                else {
                                                    votes[0] += 1;
                                                }
                                            }

                                            else {
                                                if (x[4] <= 2.7450000047683716) {
                                                    votes[1] += 1;
                                                }

                                                else {
                                                    votes[0] += 1;
                                                }
                                            }
                                        }

                                        else {
                                            if (x[3] <= 41.05000114440918) {
                                                if (x[0] <= 36.39999961853027) {
                                                    votes[1] += 1;
                                                }

                                                else {
                                                    votes[0] += 1;
                                                }
                                            }

                                            else {
                                                votes[0] += 1;
                                            }
                                        }
                                    }
                                }
                            }

                            else {
                                if (x[1] <= 100.54999923706055) {
                                    if (x[0] <= 40.14999961853027) {
                                        if (x[0] <= 31.5) {
                                            if (x[4] <= 2.0049999952316284) {
                                                if (x[1] <= 93.45000076293945) {
                                                    votes[2] += 1;
                                                }

                                                else {
                                                    votes[1] += 1;
                                                }
                                            }

                                            else {
                                                if (x[0] <= 31.049999237060547) {
                                                    votes[1] += 1;
                                                }

                                                else {
                                                    votes[0] += 1;
                                                }
                                            }
                                        }

                                        else {
                                            if (x[1] <= 91.05000305175781) {
                                                if (x[4] <= 1.6450000405311584) {
                                                    votes[2] += 1;
                                                }

                                                else {
                                                    votes[1] += 1;
                                                }
                                            }

                                            else {
                                                if (x[4] <= 2.4700000286102295) {
                                                    votes[1] += 1;
                                                }

                                                else {
                                                    votes[0] += 1;
                                                }
                                            }
                                        }
                                    }

                                    else {
                                        if (x[2] <= 11.550000190734863) {
                                            if (x[0] <= 46.64999961853027) {
                                                if (x[3] <= 43.10000038146973) {
                                                    votes[1] += 1;
                                                }

                                                else {
                                                    votes[0] += 1;
                                                }
                                            }

                                            else {
                                                if (x[3] <= 26.25) {
                                                    votes[1] += 1;
                                                }

                                                else {
                                                    votes[0] += 1;
                                                }
                                            }
                                        }

                                        else {
                                            if (x[2] <= 73.0999984741211) {
                                                if (x[1] <= 97.85000228881836) {
                                                    votes[0] += 1;
                                                }

                                                else {
                                                    votes[1] += 1;
                                                }
                                            }

                                            else {
                                                if (x[1] <= 96.44999694824219) {
                                                    votes[1] += 1;
                                                }

                                                else {
                                                    votes[0] += 1;
                                                }
                                            }
                                        }
                                    }
                                }

                                else {
                                    if (x[4] <= 2.0049999952316284) {
                                        if (x[2] <= 107.45000076293945) {
                                            if (x[3] <= 48.60000038146973) {
                                                if (x[3] <= 31.550000190734863) {
                                                    votes[1] += 1;
                                                }

                                                else {
                                                    votes[1] += 1;
                                                }
                                            }

                                            else {
                                                votes[0] += 1;
                                            }
                                        }

                                        else {
                                            votes[0] += 1;
                                        }
                                    }

                                    else {
                                        if (x[3] <= 31.949999809265137) {
                                            if (x[0] <= 42.95000076293945) {
                                                if (x[2] <= 68.39999961853027) {
                                                    votes[1] += 1;
                                                }

                                                else {
                                                    votes[0] += 1;
                                                }
                                            }

                                            else {
                                                if (x[4] <= 2.2549999952316284) {
                                                    votes[0] += 1;
                                                }

                                                else {
                                                    votes[0] += 1;
                                                }
                                            }
                                        }

                                        else {
                                            if (x[3] <= 36.75) {
                                                if (x[3] <= 36.64999961853027) {
                                                    votes[0] += 1;
                                                }

                                                else {
                                                    votes[1] += 1;
                                                }
                                            }

                                            else {
                                                if (x[2] <= 101.3499984741211) {
                                                    votes[0] += 1;
                                                }

                                                else {
                                                    votes[0] += 1;
                                                }
                                            }
                                        }
                                    }
                                }
                            }
                        }

                        // tree #5
                        if (x[3] <= 26.65000057220459) {
                            if (x[0] <= 29.34999942779541) {
                                if (x[2] <= 43.04999923706055) {
                                    if (x[4] <= 1.2649999856948853) {
                                        if (x[1] <= 86.5) {
                                            if (x[4] <= 1.215000033378601) {
                                                if (x[4] <= 1.1050000190734863) {
                                                    votes[3] += 1;
                                                }

                                                else {
                                                    votes[3] += 1;
                                                }
                                            }

                                            else {
                                                if (x[3] <= 23.5) {
                                                    votes[3] += 1;
                                                }

                                                else {
                                                    votes[2] += 1;
                                                }
                                            }
                                        }

                                        else {
                                            votes[2] += 1;
                                        }
                                    }

                                    else {
                                        if (x[3] <= 14.150000095367432) {
                                            votes[3] += 1;
                                        }

                                        else {
                                            if (x[4] <= 2.0449999570846558) {
                                                if (x[4] <= 1.3250000476837158) {
                                                    votes[2] += 1;
                                                }

                                                else {
                                                    votes[2] += 1;
                                                }
                                            }

                                            else {
